<?xml version="1.0"?>
<opencv_storage>
<cascade>
  <stageType>BOOST</stageType>
  <featureType>LBP</featureType>
  <height>24</height>
  <width>24</width>
  <stageParams>
    <boostType>GAB</boostType>
    <minHitRate>9.9500000476837158e-01</minHitRate>
    <maxFalseAlarm>5.0000000000000000e-01</maxFalseAlarm>
    <weightTrimRate>9.4999998807907104e-01</weightTrimRate>
    <maxDepth>1</maxDepth>
    <maxWeakCount>100</maxWeakCount></stageParams>
  <featureParams>
    <maxCatCount>256</maxCatCount>
    <featSize>1</featSize></featureParams>
  <stageNum>20</stageNum>
  <stages>
    <!-- stage 0 -->
    <_>
      <maxWeakCount>5</maxWeakCount>
      <stageThreshold>-1.0306385755538940e+00</stageThreshold>
      <weakClassifiers>
        <_>
          <internalNodes>
            0 -1 4 -220210233 -275525213 -804203213 -682889213
            -1006371125 1335611423 1782956099 -134749321</internalNodes>
          <leafValues>
            -7.3066425323486328e-01 5.2884614467620850e-01</leafValues></_>
        <_>
          <internalNodes>
            0 -1 13 -682118202 1759498498 355721266 -1680109225
            -531652057 1108985992 -911509242 667378095</internalNodes>
          <leafValues>
            -7.6121932268142700e-01 3.8521128892898560e-01</leafValues></_>
        <_>
          <internalNodes>
            0 -1 26 -1610612945 -361262101 1343543612 -220483213
            861135147 -804538101 772252486 -135276457</internalNodes>
          <leafValues>
            -5.6446385383605957e-01 5.6506717205047607e-01</leafValues></_>
        <_>
          <internalNodes>
            0 -1 92 -1682015721 -530205987 -586747680 12571167
            1736145671 -768873377 -274760079 -187705881</internalNodes>
          <leafValues>
            -5.9075266122817993e-01 5.8092951774597168e-01</leafValues></_>
        <_>
          <internalNodes>
            0 -1 94 993075989 1802762943 1937084822 -21113697 2101948736
            -215235925 -346031497 1744829655</internalNodes>
          <leafValues>
            -6.5950012207031250e-01 5.2205592393875122e-01</leafValues></_></weakClassifiers></_>
    <!-- stage 1 -->
    <_>
      <maxWeakCount>5</maxWeakCount>
      <stageThreshold>-1.2577705383300781e+00</stageThreshold>
      <weakClassifiers>
        <_>
          <internalNodes>
            0 -1 2 -110631982 -115224176 1073827872 -577810170
            -670832093 1763737728 -1056276173 1461940615</internalNodes>
          <leafValues>
            -8.5500574111938477e-01 1.1415524780750275e-01</leafValues></_>
        <_>
          <internalNodes>
            0 -1 8 -4730073 1141821511 -418987242 -249388769 1359134745
            1378631687 1076029713 -982027181</internalNodes>
          <leafValues>
            -6.4672821760177612e-01 4.6695053577423096e-01</leafValues></_>
        <_>
          <internalNodes>
            0 -1 10 1710066607 788286815 1870780827 -1094006830
            -1282950813 -1348868581 -516590794 -1276641409</internalNodes>
          <leafValues>
            -6.3966304063796997e-01 5.1448231935501099e-01</leafValues></_>
        <_>
          <internalNodes>
            0 -1 76 -1350878767 763812315 1238348373 -285280315
            285974679 652199207 -658637936 -69208968</internalNodes>
          <leafValues>
            -5.5564063787460327e-01 5.9328776597976685e-01</leafValues></_>
        <_>
          <internalNodes>
            0 -1 80 -1075366141 641703187 -16543482 -419507813
            -1149509037 1094693577 -670450907 -151523378</internalNodes>
          <leafValues>
            -6.4357268810272217e-01 5.3311198949813843e-01</leafValues></_></weakClassifiers></_>
    <!-- stage 2 -->
    <_>
      <maxWeakCount>5</maxWeakCount>
      <stageThreshold>-1.4445080757141113e+00</stageThreshold>
      <weakClassifiers>
        <_>
          <internalNodes>
            0 -1 60 -681845417 2034358569 1099121503 -267943911
            -1027473037 -125204437 -1052540741 -452985345</internalNodes>
          <leafValues>
            -7.1698111295700073e-01 2.7125504612922668e-01</leafValues></_>
        <_>
          <internalNodes>
            0 -1 62 122489781 -1644274849 1977201085 1989443532
            1822128973 1589774977 464173855 1073369005</internalNodes>
          <leafValues>
            -7.1812826395034790e-01 2.9589757323265076e-01</leafValues></_>
        <_>
          <internalNodes>
            0 -1 5 1532226088 2114748673 -1592259420 -6323967
            -1182575645 358178979 -89548545 2011003165</internalNodes>
          <leafValues>
            -6.8084609508514404e-01 3.8415935635566711e-01</leafValues></_>
        <_>
          <internalNodes>
            0 -1 7 -528425689 -1505454790 -1858070044 -174160926
            1901273451 1982713231 1887560256 -688499786</internalNodes>
          <leafValues>
            -7.0808255672454834e-01 3.8685774803161621e-01</leafValues></_>
        <_>
          <internalNodes>
            0 -1 71 372750829 672851166 -972836086 82051421 -617680423
            85870638 -259501408 1190083519</internalNodes>
          <leafValues>
            -7.8041571378707886e-01 3.8916966319084167e-01</leafValues></_></weakClassifiers></_>
    <!-- stage 3 -->
    <_>
      <maxWeakCount>4</maxWeakCount>
      <stageThreshold>-1.0637582540512085e+00</stageThreshold>
      <weakClassifiers>
        <_>
          <internalNodes>
            0 -1 16 2006186847 858469655 1392591838 1572290847 710508986
            1930266249 -880285041 1996448731</internalNodes>
          <leafValues>
            -7.9199999570846558e-01 -5.7075713729065126e-17</leafValues></_>
        <_>
          <internalNodes>
            0 -1 22 1718659755 -1617808281 -2095460195 -541359259
            1904706971 -1122256357 -1292144641 833965861</internalNodes>
          <leafValues>
            -6.2135493755340576e-01 3.4679919481277466e-01</leafValues></_>
        <_>
          <internalNodes>
            0 -1 11 529352615 577755096 456315614 -1459713332 88042339
            199039139 -1382555275 1626799394</internalNodes>
          <leafValues>
            -8.5365676879882813e-01 3.0988350510597229e-01</leafValues></_>
        <_>
          <internalNodes>
            0 -1 74 641027351 -398566593 -854486541 -261906427
            -1071298223 -808742615 -1199530411 -52248072</internalNodes>
          <leafValues>
            -5.5690068006515503e-01 4.7587907314300537e-01</leafValues></_></weakClassifiers></_>
    <!-- stage 4 -->
    <_>
      <maxWeakCount>5</maxWeakCount>
      <stageThreshold>-1.4654490947723389e+00</stageThreshold>
      <weakClassifiers>
        <_>
          <internalNodes>
            0 -1 50 -1607827525 -4498155 1297873813 -6890530 -2025228193
            -709373831 -208731917 -1107502751</internalNodes>
          <leafValues>
            -7.8149384260177612e-01 1.9512195140123367e-02</leafValues></_>
        <_>
          <internalNodes>
            0 -1 89 -1543676141 80311151 -1857332757 -421879591
            533813767 535166319 -1078732748 686876252</internalNodes>
          <leafValues>
            -7.1141469478607178e-01 2.7198112010955811e-01</leafValues></_>
        <_>
          <internalNodes>
            0 -1 28 1860135279 957453751 1225835401 -1096400450
            1981291354 1790534486 1479223931 -68455321</internalNodes>
          <leafValues>
            -6.1419129371643066e-01 4.4585049152374268e-01</leafValues></_>
        <_>
          <internalNodes>
            0 -1 70 947530499 -488964018 -621700131 -86056859 -66138338
            792648251 -311500118 -357254217</internalNodes>
          <leafValues>
            -5.7021427154541016e-01 4.9206873774528503e-01</leafValues></_>
        <_>
          <internalNodes>
            0 -1 97 1383028335 705864551 272699162 538245887 -670618879
            1511690951 -58623184 2129720608</internalNodes>
          <leafValues>
            -6.5142405033111572e-01 4.6304720640182495e-01</leafValues></_></weakClassifiers></_>
    <!-- stage 5 -->
    <_>
      <maxWeakCount>4</maxWeakCount>
      <stageThreshold>-1.0395145416259766e+00</stageThreshold>
      <weakClassifiers>
        <_>
          <internalNodes>
            0 -1 36 -828379301 -1533865921 -1004419329 -352921570
            -959843585 -36971053 1151977425 -308297263</internalNodes>
          <leafValues>
            -7.7173912525177002e-01 4.3927647173404694e-02</leafValues></_>
        <_>
          <internalNodes>
            0 -1 87 -1378240025 -1429688028 -196480462 677276112
            -1581812875 1131011005 1458329476 -1326915179</internalNodes>
          <leafValues>
            -7.2484833002090454e-01 2.6802319288253784e-01</leafValues></_>
        <_>
          <internalNodes>
            0 -1 25 760538805 -1434000979 -132768410 -1963013904
            2012197623 -729568897 -336372445 2121652081</internalNodes>
          <leafValues>
            -6.8529349565505981e-01 3.4652376174926758e-01</leafValues></_>
        <_>
          <internalNodes>
            0 -1 65 -138413648 919913111 1090749663 1086624645
            -732978935 -733446103 -763307583 13099027</internalNodes>
          <leafValues>
            -6.6617184877395630e-01 4.2153254151344299e-01</leafValues></_></weakClassifiers></_>
    <!-- stage 6 -->
    <_>
      <maxWeakCount>5</maxWeakCount>
      <stageThreshold>-1.3474541902542114e+00</stageThreshold>
      <weakClassifiers>
        <_>
          <internalNodes>
            0 -1 67 -12613323 -2420463 1393148403 -78589665 -1987476787
            -1274212294 1854760394 -1509360647</internalNodes>
          <leafValues>
            -7.6417231559753418e-01 -4.4705882668495178e-02</leafValues></_>
        <_>
          <internalNodes>
            0 -1 20 227815267 -1366376118 1564201907 581875061 -33957377
            1770947465 2144518838 744782503</internalNodes>
          <leafValues>
            -7.8383165597915649e-01 2.0627033710479736e-01</leafValues></_>
        <_>
          <internalNodes>
            0 -1 15 -828509729 -820604524 -1857384202 -562523790
            275862373 2006026312 -1178603165 -227042737</internalNodes>
          <leafValues>
            -6.1707568168640137e-01 3.9719456434249878e-01</leafValues></_>
        <_>
          <internalNodes>
            0 -1 0 1812455955 -1588803568 -1820255875 1578522840
            -813244231 -914287198 1233299313 -512597807</internalNodes>
          <leafValues>
            -5.9434956312179565e-01 4.2436423897743225e-01</leafValues></_>
        <_>
          <internalNodes>
            0 -1 99 -35913859 797379413 -1860886060 -411772694
            1581730098 1745590888 -242483883 1987802101</internalNodes>
          <leafValues>
            -5.9239721298217773e-01 4.3251132965087891e-01</leafValues></_></weakClassifiers></_>
    <!-- stage 7 -->
    <_>
      <maxWeakCount>5</maxWeakCount>
      <stageThreshold>-9.4375509023666382e-01</stageThreshold>
      <weakClassifiers>
        <_>
          <internalNodes>
            0 -1 84 346020917 -608841449 -212657285 -1180362893
            -184317619 -1498522993 -1195695147 -556794277</internalNodes>
          <leafValues>
            -7.4255317449569702e-01 1.3623978011310101e-02</leafValues></_>
        <_>
          <internalNodes>
            0 -1 18 -1437627565 -1924896257 -1809859845 -1499534776
            -1072933081 1531785400 -289542991 1338030166</internalNodes>
          <leafValues>
            -7.0147377252578735e-01 2.4811777472496033e-01</leafValues></_>
        <_>
          <internalNodes>
            0 -1 44 1238513152 -585347045 -1006474793 1671401734
            -1320437915 -375672280 1504233374 207683404</internalNodes>
          <leafValues>
            -7.5261241197586060e-01 2.7983146905899048e-01</leafValues></_>
        <_>
          <internalNodes>
            0 -1 32 -83955953 -1375021667 54835 -631084736 2023192342
            1728749644 1636262000 830133140</internalNodes>
          <leafValues>
            -7.2552627325057983e-01 3.4238806366920471e-01</leafValues></_>
        <_>
          <internalNodes>
            0 -1 73 170266405 330987599 658747440 920119220 1035434559
            -1265405282 -1566897752 401962404</internalNodes>
          <leafValues>
            -7.9527252912521362e-01 3.0956593155860901e-01</leafValues></_></weakClassifiers></_>
    <!-- stage 8 -->
    <_>
      <maxWeakCount>4</maxWeakCount>
      <stageThreshold>-9.2479401826858521e-01</stageThreshold>
      <weakClassifiers>
        <_>
          <internalNodes>
            0 -1 88 -69993601 554162781 1359073821 -1755130531
            1241703611 -1467440989 306439102 -806356069</internalNodes>
          <leafValues>
            -6.8207025527954102e-01 2.0000000298023224e-01</leafValues></_>
        <_>
          <internalNodes>
            0 -1 56 -636513500 1568840024 205768857 268636491 1610795728
            -649949016 -880240466 -1598227495</internalNodes>
          <leafValues>
            -6.7398011684417725e-01 2.3922297358512878e-01</leafValues></_>
        <_>
          <internalNodes>
            0 -1 33 1556859132 -800153007 -250346478 -58009484
            1612120689 438435949 -1451001216 1098601351</internalNodes>
          <leafValues>
            -6.7871832847595215e-01 2.9411715269088745e-01</leafValues></_>
        <_>
          <internalNodes>
            0 -1 47 -769919312 5521605 -1862171312 404492767 1384127420
            822182088 967852 12579102</internalNodes>
          <leafValues>
            -7.4493104219436646e-01 2.8381302952766418e-01</leafValues></_></weakClassifiers></_>
    <!-- stage 9 -->
    <_>
      <maxWeakCount>6</maxWeakCount>
      <stageThreshold>-1.0177942514419556e+00</stageThreshold>
      <weakClassifiers>
        <_>
          <internalNodes>
            0 -1 21 -281545825 -148959141 -922103339 -8924717 -385183553
            -234055287 -365954869 -2100537</internalNodes>
          <leafValues>
            -6.4878892898559570e-01 3.7748345732688904e-01</leafValues></_>
        <_>
          <internalNodes>
            0 -1 39 -471988161 331464757 -1928865953 1033007786
            -663871437 1804422786 2017121275 -847548198</internalNodes>
          <leafValues>
            -5.3715509176254272e-01 3.4771654009819031e-01</leafValues></_>
        <_>
          <internalNodes>
            0 -1 29 635393455 1703463412 882231745 -118541430 2144039038
            1625473058 -1588428188 28471205</internalNodes>
          <leafValues>
            -7.1173441410064697e-01 2.8837561607360840e-01</leafValues></_>
        <_>
          <internalNodes>
            0 -1 41 -105387170 900808980 -1072621876 117645528
            1111536071 330301829 1745513028 551225306</internalNodes>
          <leafValues>
            -7.7632015943527222e-01 2.4832250177860260e-01</leafValues></_>
        <_>
          <internalNodes>
            0 -1 67 -428179451 2006106388 1090557147 -1556741089
            -1836613620 -1471577710 -934967846 571493113</internalNodes>
          <leafValues>
            -6.5119451284408569e-01 3.2452306151390076e-01</leafValues></_>
        <_>
          <internalNodes>
            0 -1 31 -2146295113 -2129427135 1365612992 450007430
            697407571 596508673 -490501449 2117854669</internalNodes>
          <leafValues>
            -5.5330038070678711e-01 4.0716937184333801e-01</leafValues></_></weakClassifiers></_>
    <!-- stage 10 -->
    <_>
      <maxWeakCount>5</maxWeakCount>
      <stageThreshold>-1.4848822355270386e+00</stageThreshold>
      <weakClassifiers>
        <_>
          <internalNodes>
            0 -1 35 -863504929 -548949743 -171458411 -49561158
            -653526561 -1467283325 -1149152289 -640458281</internalNodes>
          <leafValues>
            -7.0441460609436035e-01 1.5471698343753815e-01</leafValues></_>
        <_>
          <internalNodes>
            0 -1 6 671575579 155615690 1544128910 -1408590161
            -1313615761 1943126174 -1340384937 373128485</internalNodes>
          <leafValues>
            -7.9995322227478027e-01 1.5259531140327454e-01</leafValues></_>
        <_>
          <internalNodes>
            0 -1 30 -392537423 -204226158 495047070 -1160193780
            1444902485 1515268266 71368911 1665622120</internalNodes>
          <leafValues>
            -6.5719395875930786e-01 2.8913089632987976e-01</leafValues></_>
        <_>
          <internalNodes>
            0 -1 83 566981938 801693917 1930511376 350703698 -1660341168
            -393604169 -257843099 1223211596</internalNodes>
          <leafValues>
            -6.8606096506118774e-01 3.0348965525627136e-01</leafValues></_>
        <_>
          <internalNodes>
            0 -1 17 -1211236379 -1911625548 1773486173 668385928
            -934852327 2015759397 1246259776 1591966526</internalNodes>
          <leafValues>
            -5.7313495874404907e-01 3.6395010352134705e-01</leafValues></_></weakClassifiers></_>
    <!-- stage 11 -->
    <_>
      <maxWeakCount>5</maxWeakCount>
      <stageThreshold>-1.3777667284011841e+00</stageThreshold>
      <weakClassifiers>
        <_>
          <internalNodes>
            0 -1 55 1393399711 -48916073 -212659785 -250515195
            -776801555 -561378646 -895365394 -65364838</internalNodes>
          <leafValues>
            -6.7309457063674927e-01 1.8348623812198639e-01</leafValues></_>
        <_>
          <internalNodes>
            0 -1 96 -346823380 -2058628273 -1051420864 2021278462
            -125220015 2022639279 -309887128 1959949383</internalNodes>
          <leafValues>
            -7.0060098171234131e-01 1.9647935032844543e-01</leafValues></_>
        <_>
          <internalNodes>
            0 -1 48 719604724 1493435200 -1341252853 490414169
            2013407326 1004011691 -920626965 892862586</internalNodes>
          <leafValues>
            -7.5326061248779297e-01 2.3270453512668610e-01</leafValues></_>
        <_>
          <internalNodes>
            0 -1 98 -874577087 -2083534371 -719862650 751493462
            171473219 -1349102533 -179636199 1743322821</internalNodes>
          <leafValues>
            -5.9834116697311401e-01 3.3871680498123169e-01</leafValues></_>
        <_>
          <internalNodes>
            0 -1 27 -1673210662 -1323822704 -1727524776 856949251
            436585047 -737008600 1627630282 1801417033</internalNodes>
          <leafValues>
            -5.3551483154296875e-01 3.8764718174934387e-01</leafValues></_></weakClassifiers></_>
    <!-- stage 12 -->
    <_>
      <maxWeakCount>4</maxWeakCount>
      <stageThreshold>-9.6197503805160522e-01</stageThreshold>
      <weakClassifiers>
        <_>
          <internalNodes>
            0 -1 42 -424021185 -63199817 -105680641 -209747297
            -645530881 -1079985509 -51650393 -801235</internalNodes>
          <leafValues>
            -6.7467653751373291e-01 1.6444444656372070e-01</leafValues></_>
        <_>
          <internalNodes>
            0 -1 3 -1501110337 206476552 1286658238 -2109246492
            1808483411 732021491 -220748621 644339559</internalNodes>
          <leafValues>
            -7.0706111192703247e-01 2.0679147541522980e-01</leafValues></_>
        <_>
          <internalNodes>
            0 -1 52 -286807509 751578161 -1056403190 -24751546
            -184435885 1774382123 1930848232 -151487241</internalNodes>
          <leafValues>
            -5.1872211694717407e-01 3.6936494708061218e-01</leafValues></_>
        <_>
          <internalNodes>
            0 -1 57 1381870196 1346523412 34718187 282301237 2124486956
            -895417400 -481876628 6141589</internalNodes>
          <leafValues>
            -7.8872334957122803e-01 2.5346487760543823e-01</leafValues></_></weakClassifiers></_>
    <!-- stage 13 -->
    <_>
      <maxWeakCount>6</maxWeakCount>
      <stageThreshold>-1.2171703577041626e+00</stageThreshold>
      <weakClassifiers>
        <_>
          <internalNodes>
            0 -1 79 -1147943169 -619363073 -2074766369 -660500035
            -402010498 -274705527 1439214041 -335553541</internalNodes>
          <leafValues>
            -6.8022704124450684e-01 1.0400000214576721e-01</leafValues></_>
        <_>
          <internalNodes>
            0 -1 12 -1638859922 1861236303 -272518114 -390151354
            1916453743 1503888391 258867 1616231365</internalNodes>
          <leafValues>
            -7.5022828578948975e-01 1.7014405131340027e-01</leafValues></_>
        <_>
          <internalNodes>
            0 -1 45 203982413 -2000512318 460321128 -543796669
            -2137320478 1300889694 1249592247 -428051456</internalNodes>
          <leafValues>
            -6.1834281682968140e-01 2.8032585978507996e-01</leafValues></_>
        <_>
          <internalNodes>
            0 -1 50 -1591705941 -105467052 1148436761 -860200878
            -1939308527 -1966268254 2121212665 -1192241119</internalNodes>
          <leafValues>
            -4.5210608839988708e-01 4.5222851634025574e-01</leafValues></_>
        <_>
          <internalNodes>
            0 -1 19 -2136423425 -829886177 1879695580 -1098639204
            1934257535 489238659 1869226360 839142700</internalNodes>
          <leafValues>
            -6.6053783893585205e-01 2.9984200000762939e-01</leafValues></_>
        <_>
          <internalNodes>
            0 -1 24 1452208318 -451624794 -1857908648 1371701262
            1218874116 538214434 151053159 73867782</internalNodes>
          <leafValues>
            -7.7910381555557251e-01 2.8279593586921692e-01</leafValues></_></weakClassifiers></_>
    <!-- stage 14 -->
    <_>
      <maxWeakCount>5</maxWeakCount>
      <stageThreshold>-8.9495086669921875e-01</stageThreshold>
      <weakClassifiers>
        <_>
          <internalNodes>
            0 -1 51 -1887844547 -299911685 -1046379352 -537830499
            -1406429085 -1926188621 -1835012157 -826300367</internalNodes>
          <leafValues>
            -7.4223244190216064e-01 -1.0958904027938843e-01</leafValues></_>
        <_>
          <internalNodes>
            0 -1 69 840180413 546943710 561508446 986139869 92765937
            -106067302 1005291209 837564272</internalNodes>
          <leafValues>
            -7.6801460981369019e-01 1.4652355015277863e-01</leafValues></_>
        <_>
          <internalNodes>
            0 -1 43 1925425706 1975894769 142891515 2088535131 822087465
            -1928658805 1916971923 1086670746</internalNodes>
          <leafValues>
            -6.7059439420700073e-01 2.4920116364955902e-01</leafValues></_>
        <_>
          <internalNodes>
            0 -1 64 1259932357 -1588464075 1090523463 -247266802
            -620656364 -2545662 -104093118 -905963409</internalNodes>
          <leafValues>
            -4.6755293011665344e-01 4.2544308304786682e-01</leafValues></_>
        <_>
          <internalNodes>
            0 -1 53 -1745477795 143131417 -234441533 2086568327
            457185340 -1199566837 1998987536 411880077</internalNodes>
          <leafValues>
            -6.8673408031463623e-01 2.9471531510353088e-01</leafValues></_></weakClassifiers></_>
    <!-- stage 15 -->
    <_>
      <maxWeakCount>6</maxWeakCount>
      <stageThreshold>-1.1245753765106201e+00</stageThreshold>
      <weakClassifiers>
        <_>
          <internalNodes>
            0 -1 85 1544133115 -640975921 1224839313 -298511009
            1917029077 423281169 554209500 -322969162</internalNodes>
          <leafValues>
            -7.2157281637191772e-01 -3.8251366466283798e-02</leafValues></_>
        <_>
          <internalNodes>
            0 -1 37 -901079142 -800943733 -721353785 242650190
            2013917749 -1567522405 1912936440 1097823095</internalNodes>
          <leafValues>
            -6.4390462636947632e-01 2.0527555048465729e-01</leafValues></_>
        <_>
          <internalNodes>
            0 -1 93 -318564241 114153425 454105624 680974550 -1172329124
            -1176040187 1963578070 1374742591</internalNodes>
          <leafValues>
            -6.2379950284957886e-01 2.8045573830604553e-01</leafValues></_>
        <_>
          <internalNodes>
            0 -1 81 -1072433871 -2056791744 -788016757 340837068
            -1868361437 -1941600255 -1516277316 -1478230444</internalNodes>
          <leafValues>
            -4.5805421471595764e-01 4.3879210948944092e-01</leafValues></_>
        <_>
          <internalNodes>
            0 -1 34 -317320450 1363452906 -2146840303 -1300102438
            1745505081 910229632 1073982377 1985702607</internalNodes>
          <leafValues>
            -6.2118983268737793e-01 3.3912539482116699e-01</leafValues></_>
        <_>
          <internalNodes>
            0 -1 91 -203598241 1392858257 -2096987750 1453184468
            -58000551 -1736342507 -905792875 413580889</internalNodes>
          <leafValues>
            -4.9281123280525208e-01 4.2221999168395996e-01</leafValues></_></weakClassifiers></_>
    <!-- stage 16 -->
    <_>
      <maxWeakCount>6</maxWeakCount>
      <stageThreshold>-1.2427535057067871e+00</stageThreshold>
      <weakClassifiers>
        <_>
          <internalNodes>
            0 -1 78 -1009048211 -2095397547 1089769865 1390139421
            1725482576 -569061730 -1954219858 -121962497</internalNodes>
          <leafValues>
            -7.5381010770797729e-01 -1.1013215780258179e-01</leafValues></_>
        <_>
          <internalNodes>
            0 -1 23 1167451239 -1395733246 1364320019 -1467617099
            1401116319 941678827 877449231 1198385911</internalNodes>
          <leafValues>
            -5.8771073818206787e-01 2.3403482139110565e-01</leafValues></_>
        <_>
          <internalNodes>
            0 -1 66 -1923126254 -1557723116 1084755522 -792456020
            -83161022 1000980884 -74832180 -852799784</internalNodes>
          <leafValues>
            -5.7902926206588745e-01 3.1302234530448914e-01</leafValues></_>
        <_>
          <internalNodes>
            0 -1 49 -15531329 222843144 -670390194 -1350217320
            -2113776999 1678248380 -931134834 541661250</internalNodes>
          <leafValues>
            -6.0068160295486450e-01 3.4409123659133911e-01</leafValues></_>
        <_>
          <internalNodes>
            0 -1 68 -820833024 -1089462131 -1073491557 -644157261
            2046831709 -1189377661 194619981 -71404948</internalNodes>
          <leafValues>
            -4.7781237959861755e-01 4.3156245350837708e-01</leafValues></_>
        <_>
          <internalNodes>
            0 -1 59 269879517 -786746521 -1056665103 -2102457706
            -754961672 -1607270181 -1927329120 154197280</internalNodes>
          <leafValues>
            -6.8881380558013916e-01 2.8761634230613708e-01</leafValues></_></weakClassifiers></_>
    <!-- stage 17 -->
    <_>
      <maxWeakCount>6</maxWeakCount>
      <stageThreshold>-1.2118222713470459e+00</stageThreshold>
      <weakClassifiers>
        <_>
          <internalNodes>
            0 -1 72 -1912259107 -48885358 1966409022 416418774
            -1846935617 -1154303360 -636124467 -1086928836</internalNodes>
          <leafValues>
            -7.4942529201507568e-01 -9.3821510672569275e-02</leafValues></_>
        <_>
          <internalNodes>
            0 -1 77 -2079386511 1111970125 -1725349481 1704677830
            4343067 -873572968 -1741968636 -60785959</internalNodes>
          <leafValues>
            -6.1348694562911987e-01 2.3735292255878448e-01</leafValues></_>
        <_>
          <internalNodes>
            0 -1 95 2006519653 -1462349423 -212020065 -1495498466
            -1415757243 -735211517 585873753 1172007774</internalNodes>
          <leafValues>
            -6.2937456369400024e-01 2.9670938849449158e-01</leafValues></_>
        <_>
          <internalNodes>
            0 -1 14 -1428247045 706008067 -2138734526 -1730526759
            2013667363 1497964551 708997393 -1592466765</internalNodes>
          <leafValues>
            -5.2577239274978638e-01 4.0040802955627441e-01</leafValues></_>
        <_>
          <internalNodes>
            0 -1 1 -954476433 -1107292079 -1795140067 -1996370794
            -897337297 747247745 260096514 1643611731</internalNodes>
          <leafValues>
            -5.9478902816772461e-01 3.5242006182670593e-01</leafValues></_>
        <_>
          <internalNodes>
            0 -1 46 1615307814 -1191182327 16807004 -401026785
            1040499168 -1207369333 -494018388 -1220106678</internalNodes>
          <leafValues>
            -5.7247966527938843e-01 3.9458224177360535e-01</leafValues></_></weakClassifiers></_>
    <!-- stage 18 -->
    <_>
      <maxWeakCount>6</maxWeakCount>
      <stageThreshold>-1.0763779878616333e+00</stageThreshold>
      <weakClassifiers>
        <_>
          <internalNodes>
            0 -1 82 -1342572585 -1885466337 -1190012197 2131618092
            983583139 -842119167 -578379331 -554989157</internalNodes>
          <leafValues>
            -7.0143151283264160e-01 -2.1276595070958138e-02</leafValues></_>
        <_>
          <internalNodes>
            0 -1 90 712721797 1512751193 1992622616 2121499422
            2105571385 1871159305 -821363947 1247152745</internalNodes>
          <leafValues>
            -7.1817851066589355e-01 1.7061956226825714e-01</leafValues></_>
        <_>
          <internalNodes>
            0 -1 54 -1778804141 1841496211 143876527 104960283
            -535252631 -643104245 59480722 194579129</internalNodes>
          <leafValues>
            -5.2323472499847412e-01 3.5041242837905884e-01</leafValues></_>
        <_>
          <internalNodes>
            0 -1 40 -1419982875 172568712 1233279309 -833646455 63310810
            -905214959 849035665 -1989515198</internalNodes>
          <leafValues>
            -5.3206801414489746e-01 3.9579200744628906e-01</leafValues></_>
        <_>
          <internalNodes>
            0 -1 75 895392545 594560178 1125922070 1293267337
            -1943807810 1570820232 -1824292468 -1391607589</internalNodes>
          <leafValues>
            -5.2247947454452515e-01 4.0674960613250732e-01</leafValues></_>
        <_>
          <internalNodes>
            0 -1 58 -1219148506 134402386 1127821744 856850458
            1880034451 -1962196601 763379928 -873488208</internalNodes>
          <leafValues>
            -5.4615551233291626e-01 3.6721220612525940e-01</leafValues></_></weakClassifiers></_>
    <!-- stage 19 -->
    <_>
      <maxWeakCount>5</maxWeakCount>
      <stageThreshold>-1.4512126445770264e+00</stageThreshold>
      <weakClassifiers>
        <_>
          <internalNodes>
            0 -1 86 -587765061 -716111829 -1056853861 754603030
            -635707173 707510283 -617889256 -822086945</internalNodes>
          <leafValues>
            -7.1038824319839478e-01 -4.5197740197181702e-02</leafValues></_>
        <_>
          <internalNodes>
            0 -1 9 1342943574 -1071235066 -2130525860 871530648
            1481232489 1286252682 1386827348 662007923</internalNodes>
          <leafValues>
            -7.7828240394592285e-01 1.2941506505012512e-01</leafValues></_>
        <_>
          <internalNodes>
            0 -1 38 -1783802666 1918161142 -1542418273 910364752
            -882140936 799294219 -620680744 348668361</internalNodes>
          <leafValues>
            -7.6132738590240479e-01 2.0212167501449585e-01</leafValues></_>
        <_>
          <internalNodes>
            0 -1 63 811084085 1162586677 -2012654205 -215170981
            830524348 697204739 142835761 169896323</internalNodes>
          <leafValues>
            -5.7664483785629272e-01 3.2922467589378357e-01</leafValues></_>
        <_>
          <internalNodes>
            0 -1 61 1657185162 -452558779 -2146791022 1107399690
            -1979027295 -1954456828 1275464121 -1895613481</internalNodes>
          <leafValues>
            -4.9571621417999268e-01 3.9941638708114624e-01</leafValues></_></weakClassifiers></_></stages>
  <features>
    <_>
      <rect>
        0 0 3 3</rect></_>
    <_>
      <rect>
        0 0 5 2</rect></_>
    <_>
      <rect>
        0 0 7 8</rect></_>
    <_>
      <rect>
        0 1 1 1</rect></_>
    <_>
      <rect>
        0 1 3 5</rect></_>
    <_>
      <rect>
        0 1 8 3</rect></_>
    <_>
      <rect>
        0 2 1 1</rect></_>
    <_>
      <rect>
        0 3 3 2</rect></_>
    <_>
      <rect>
        0 3 3 5</rect></_>
    <_>
      <rect>
        0 3 3 6</rect></_>
    <_>
      <rect>
        0 4 2 1</rect></_>
    <_>
      <rect>
        0 6 1 1</rect></_>
    <_>
      <rect>
        0 7 1 1</rect></_>
    <_>
      <rect>
        0 7 8 5</rect></_>
    <_>
      <rect>
        0 10 1 2</rect></_>
    <_>
      <rect>
        0 15 3 1</rect></_>
    <_>
      <rect>
        0 15 8 3</rect></_>
    <_>
      <rect>
        0 17 1 2</rect></_>
    <_>
      <rect>
        0 18 1 1</rect></_>
    <_>
      <rect>
        0 21 2 1</rect></_>
    <_>
      <rect>
        1 0 1 1</rect></_>
    <_>
      <rect>
        1 0 2 2</rect></_>
    <_>
      <rect>
        1 0 6 2</rect></_>
    <_>
      <rect>
        1 1 1 1</rect></_>
    <_>
      <rect>
        1 3 3 4</rect></_>
    <_>
      <rect>
        1 4 1 1</rect></_>
    <_>
      <rect>
        1 11 2 1</rect></_>
    <_>
      <rect>
        1 13 4 3</rect></_>
    <_>
      <rect>
        1 15 3 3</rect></_>
    <_>
      <rect>
        1 16 1 1</rect></_>
    <_>
      <rect>
        1 17 5 2</rect></_>
    <_>
      <rect>
        2 0 1 1</rect></_>
    <_>
      <rect>
        2 10 1 1</rect></_>
    <_>
      <rect>
        2 11 2 2</rect></_>
    <_>
      <rect>
        2 17 3 2</rect></_>
    <_>
      <rect>
        3 0 3 2</rect></_>
    <_>
      <rect>
        3 1 2 2</rect></_>
    <_>
      <rect>
        3 5 3 4</rect></_>
    <_>
      <rect>
        3 6 7 6</rect></_>
    <_>
      <rect>
        3 15 2 3</rect></_>
    <_>
      <rect>
        4 3 1 1</rect></_>
    <_>
      <rect>
        4 7 6 4</rect></_>
    <_>
      <rect>
        6 0 1 1</rect></_>
    <_>
      <rect>
        6 0 4 2</rect></_>
    <_>
      <rect>
        6 0 5 3</rect></_>
    <_>
      <rect>
        6 5 1 1</rect></_>
    <_>
      <rect>
        6 8 3 2</rect></_>
    <_>
      <rect>
        6 17 6 2</rect></_>
    <_>
      <rect>
        6 18 2 2</rect></_>
    <_>
      <rect>
        6 20 5 1</rect></_>
    <_>
      <rect>
        7 1 1 1</rect></_>
    <_>
      <rect>
        7 2 1 1</rect></_>
    <_>
      <rect>
        7 9 1 1</rect></_>
    <_>
      <rect>
        7 21 1 1</rect></_>
    <_>
      <rect>
        8 0 2 2</rect></_>
    <_>
      <rect>
        8 0 5 1</rect></_>
    <_>
      <rect>
        8 0 5 3</rect></_>
    <_>
      <rect>
        8 1 5 4</rect></_>
    <_>
      <rect>
        8 11 3 2</rect></_>
    <_>
      <rect>
        9 0 1 1</rect></_>
    <_>
      <rect>
        9 0 5 5</rect></_>
    <_>
      <rect>
        9 6 3 5</rect></_>
    <_>
      <rect>
        9 21 1 1</rect></_>
    <_>
      <rect>
        10 0 2 1</rect></_>
    <_>
      <rect>
        10 0 3 1</rect></_>
    <_>
      <rect>
        10 1 4 6</rect></_>
    <_>
      <rect>
        10 14 2 1</rect></_>
    <_>
      <rect>
        11 0 3 2</rect></_>
    <_>
      <rect>
        11 9 1 1</rect></_>
    <_>
      <rect>
        11 21 1 1</rect></_>
    <_>
      <rect>
        12 0 2 1</rect></_>
    <_>
      <rect>
        12 13 4 2</rect></_>
    <_>
      <rect>
        12 19 1 1</rect></_>
    <_>
      <rect>
        14 21 1 1</rect></_>
    <_>
      <rect>
        15 0 2 1</rect></_>
    <_>
      <rect>
        15 17 2 2</rect></_>
    <_>
      <rect>
        15 19 1 1</rect></_>
    <_>
      <rect>
        16 1 1 1</rect></_>
    <_>
      <rect>
        16 5 1 1</rect></_>
    <_>
      <rect>
        17 2 2 1</rect></_>
    <_>
      <rect>
        17 9 2 1</rect></_>
    <_>
      <rect>
        17 12 1 2</rect></_>
    <_>
      <rect>
        17 19 1 1</rect></_>
    <_>
      <rect>
        17 20 2 1</rect></_>
    <_>
      <rect>
        18 0 2 2</rect></_>
    <_>
      <rect>
        18 3 2 3</rect></_>
    <_>
      <rect>
        18 4 2 5</rect></_>
    <_>
      <rect>
        18 13 1 1</rect></_>
    <_>
      <rect>
        18 15 2 3</rect></_>
    <_>
      <rect>
        19 19 1 1</rect></_>
    <_>
      <rect>
        20 1 1 1</rect></_>
    <_>
      <rect>
        20 2 1 1</rect></_>
    <_>
      <rect>
        20 8 1 1</rect></_>
    <_>
      <rect>
        20 17 1 1</rect></_>
    <_>
      <rect>
        21 0 1 1</rect></_>
    <_>
      <rect>
        21 4 1 1</rect></_>
    <_>
      <rect>
        21 6 1 1</rect></_>
    <_>
      <rect>
        21 16 1 2</rect></_>
    <_>
      <rect>
        21 19 1 1</rect></_>
    <_>
      <rect>
        21 21 1 1</rect></_></features></cascade>
</opencv_storage>
